{
    "Layer_0": {
        "LayerType": "ReLuLayer",
        "NumInputs": 2,
        "NumNeurons": 10,
        "Weights": [
            -0.14638178118972267,
            0.13452965847232812,
            -1.8713843104106027,
            0.4606501823830636,
            -0.21425338820894424,
            0.16371168423431334,
            -0.8279441823571968,
            0.29859525955796656,
            1.055466443880381,
            0.010215434345918413,
            1.1745676774548646,
            -0.5468410028245593,
            -1.0494427344404904,
            0.660682145228463,
            -0.6252759758080609,
            1.4859642641035697,
            -0.8290810465303858,
            -2.559122441548717,
            -0.8887071907695535,
            -0.5397805245793665
        ]
    },
    "Layer_1": {
        "LayerType": "SigmoidOutputLayer",
        "NumInputs": 11,
        "NumNeurons": 5,
        "Weights": [
            -0.3031815480401773,
            -0.1364658664022807,
            -0.05487547817932607,
            0.2109007186423084,
            -0.2640445096055133,
            -0.30125290612409356,
            0.2978448667706073,
            0.3071926456274109,
            0.06894675761000457,
            0.3752634727009136,
            -0.1987385385711596,
            -0.19248178908865451,
            -0.23710027168715578,
            -0.21054861209536072,
            0.37479793056931276,
            -0.2841825720194435,
            0.5052663002790745,
            -0.02454714990426775,
            -0.005550134486827597,
            0.07321959828790547,
            -0.3683357990495591,
            0.15239142436268402,
            -0.12103957747744214,
            -0.3916481713270273,
            -0.5225500742698026,
            -0.04147802974732026,
            0.06008587714689242,
            -0.14347645914576015,
            -0.2918919690796844,
            -0.29819834759483654,
            0.435096784204646,
            0.29246928593660887,
            0.2148263945340777,
            0.17677590865731685,
            0.06625130979913028,
            -0.023757612918920732,
            -0.08140152522624274,
            0.11895081215019666,
            0.418756635992913,
            0.11297159851892936,
            0.5930107587745042,
            0.35766096456420327,
            -0.255140697246437,
            -0.4185579609662556,
            -0.03483082279935026,
            0.24361723291563075,
            -0.30915470964817804,
            -0.27936913347844067,
            0.4140225888058829,
            0.21494682820429653,
            -0.1028642770982966,
            -0.5300505789784338,
            -0.3339268218440534,
            -0.15418202800353606,
            -0.006563553944121106
        ]
    },
    "NetworkInfo": {
        "NumInputs": 1,
        "NumLayers": 2
    }
}
